-6.325786305196336343e+02 1.841271203428417778e+02
-6.276146369962854124e+02 1.794186399302535619e+02
-6.210458126731156199e+02 1.772315790890729090e+02
-6.309073868686116384e+02 1.851009517711094361e+02
-6.250976770288174293e+02 1.752008692577531974e+02
-6.338512032723410812e+02 1.869272159696120355e+02
-4.227704343664849489e+02 1.265741995860397395e+02
-6.327877470226403602e+02 1.857362726437864069e+02
-6.214349208597966481e+02 1.814802253483211132e+02
-1.737761560812334594e+01 -2.458750213171501571e+02
1.345263295395658432e+01 -2.508694844765512642e+02
3.580192464974173561e+01 -2.302250461074378620e+02
5.276025076275634973e+01 -2.174822277151649246e+02
5.878083619803975779e+01 -2.328361142192627256e+02
4.194857008340668614e+01 -2.549224595424641393e+02
-6.815572129933968881e+01 -2.759600453090456540e+02
-8.294489938316816335e+01 -2.835822914589844572e+02
1.087369158612782094e+01 -2.516955205111354985e+02
-1.423853526464066199e+01 -2.714856009039122000e+02
-1.227467474665942433e+02 -2.804116942061612008e+02
-1.033616983259046123e+02 -2.445442137008637644e+02
-2.338546055979895755e+01 -2.799423436461187862e+02
-3.790886539066154626e+01 -2.716713288659076397e+02
-1.402854753842519209e+01 -2.296016178106488610e+02
-5.995159695707201308e+00 -2.198689940137196004e+02
1.646530245144900206e+01 -1.923949298833011596e+02
3.772177973359377212e+00 -2.127461450870938791e+02
8.479723270208239683e+01 -1.314234235667245230e+02
3.434757068938517932e+01 -1.585426972573393130e+02
3.012784965707365927e+02 2.167744305321114950e+02
2.989725932429312820e+02 2.144019947072019079e+02
2.953912623433145654e+02 2.180633434403614501e+02
2.957474576484185036e+02 2.133318555840284887e+02
2.978531809300957889e+02 1.933588319656234944e+02
2.952334630459032496e+02 1.938184967656728190e+02
3.050451772924846523e+02 2.026645348901705006e+02
2.962528346234690844e+02 1.980541226114495146e+02
2.115283030842128653e+02 4.557819291642260850e+01
2.328396510910689585e+02 6.841350157152228917e+01
2.400183214916422969e+02 7.493737693099983233e+01
2.389032348623285031e+02 6.673883670433713178e+01
3.004616796240246117e+02 1.577102986121099946e+02
2.762364973357022109e+02 1.653642204163431870e+02
2.884125074154534332e+02 1.622293978048134591e+02
2.589212090005332243e+02 1.507676328425129384e+02
2.833111868053101148e+02 1.573607136199471483e+02
2.863163778711329428e+02 1.403606809429635689e+02
2.952499793743964460e+02 1.607757461533268213e+02
2.872580964366318312e+02 1.535799166482759404e+02
